1 100
<unk> -0.0719242548727 0.0588255594133 0.0738866086031 0.00226238532466 -0.0561353937429 0.0658574664538 -0.0643199368119 0.045214295485 -0.00406633610525 -0.0128157547506 -0.0318172732449 -0.0735869289985 -0.0194648529097 0.0470738602823 -0.0270389205262 -0.0503664869405 0.0147380942696 0.0610303577436 -0.00566433200254 0.0165794462262 -0.00931307354404 0.0275477423399 0.0231853377304 0.0615499575818 0.0667254790692 -0.070250484533 -0.00141668828817 0.0679253685411 -0.0561482186115 0.0156685537191 5.46252149562e-05 0.0323546295052 0.0116751413641 -0.0298300407812 0.0628398625664 -0.0112430982643 0.0715155870664 -0.0460711243503 0.0609685350832 0.0220239369454 -0.00500213910816 -0.059349050459 0.0247170041885 0.0533783479327 0.0610889395901 -0.0582484203232 0.0449245910068 0.0486267842131 0.0160978243919 0.00402462815191 -0.000916950522922 0.0105503848488 -0.029563740001 0.0712150909403 -0.0703594969003 -0.0714903969969 0.0546073051598 -0.0678365885508 0.0569759650823 -0.0477897923377 -0.023510766229 0.00407150364924 -0.020721943565 0.0759293232822 -0.0597805937533 -0.00788181697831 -0.0752585664133 0.0229491929371 -0.0218835963533 0.0398973463858 0.0421658767713 0.0619694737621 0.059405445709 -0.0438164164838 -0.0273855051759 -0.0101369229034 0.0478263464403 -0.0450595685766 -0.00489899476963 0.042033911158 -0.00774893272607 -0.00530596088939 -0.0395357682237 -0.00929400001818 -0.0265155163607 0.0182923261352 0.0168303567159 0.0743010172856 0.055705856673 0.0491108603165 -0.0106411777456 -0.0693537978837 0.0140789968683 0.0722068865076 0.00746940757028 -0.0275861786682 -0.0597964342845 0.0100890145412 0.0738694007665 -0.0667349957129
